digraph Tree {
node [shape=box, style="filled, rounded", color="black", fontname="helvetica"] ;
edge [fontname="helvetica"] ;
0 [label="LNG <= 0.01\nsquared_error = 0.14\nsamples = 37\nvalue = [[0.37]\n[0.46]\n[0.17]]", fillcolor="#fefaf7"] ;
1 [label="SPY <= 0.0\nsquared_error = 0.14\nsamples = 33\nvalue = [[0.41]\n[0.4]\n[0.19]]", fillcolor="#ffffff"] ;
0 -> 1 [labeldistance=2.5, labelangle=45, headlabel="True"] ;
2 [label="SMLV <= -0.0\nsquared_error = 0.12\nsamples = 18\nvalue = [[0.25]\n[0.54]\n[0.2]]", fillcolor="#fae7da"] ;
1 -> 2 ;
3 [label="SMLV <= -0.0\nsquared_error = 0.09\nsamples = 3\nvalue = [[0.02]\n[0.3]\n[0.68]]", fillcolor="#f6d4bc"] ;
2 -> 3 ;
4 [label="squared_error = 0.0\nsamples = 1\nvalue = [[0.0]\n[0.95]\n[0.04]]", fillcolor="#e58139"] ;
3 -> 4 ;
5 [label="SMLV <= -0.0\nsquared_error = 0.0\nsamples = 2\nvalue = [[0.03]\n[0.08]\n[0.9]]", fillcolor="#e5823a"] ;
3 -> 5 ;
6 [label="squared_error = 0.0\nsamples = 1\nvalue = [[0.0]\n[0.13]\n[0.86]]", fillcolor="#e58139"] ;
5 -> 6 ;
7 [label="squared_error = -0.0\nsamples = 1\nvalue = [[0.04]\n[0.05]\n[0.91]]", fillcolor="#e58139"] ;
5 -> 7 ;
8 [label="SMLV <= 0.0\nsquared_error = 0.09\nsamples = 15\nvalue = [[0.3]\n[0.59]\n[0.11]]", fillcolor="#f6d3ba"] ;
2 -> 8 ;
9 [label="SMLV <= -0.0\nsquared_error = 0.11\nsamples = 9\nvalue = [[0.39]\n[0.45]\n[0.16]]", fillcolor="#f9e1d0"] ;
8 -> 9 ;
10 [label="SMLV <= -0.0\nsquared_error = 0.08\nsamples = 5\nvalue = [[0.15]\n[0.66]\n[0.19]]", fillcolor="#f4c7a8"] ;
9 -> 10 ;
11 [label="LNG <= 0.0\nsquared_error = 0.0\nsamples = 2\nvalue = [[0.5]\n[0.49]\n[0.01]]", fillcolor="#e5823b"] ;
10 -> 11 ;
12 [label="squared_error = -0.0\nsamples = 1\nvalue = [[0.54]\n[0.44]\n[0.01]]", fillcolor="#e58139"] ;
11 -> 12 ;
13 [label="squared_error = 0.0\nsamples = 1\nvalue = [[0.46]\n[0.54]\n[0.0]]", fillcolor="#e58139"] ;
11 -> 13 ;
14 [label="SPY <= -0.0\nsquared_error = 0.08\nsamples = 3\nvalue = [[0.01]\n[0.72]\n[0.27]]", fillcolor="#f3c5a4"] ;
10 -> 14 ;
15 [label="squared_error = 0.0\nsamples = 1\nvalue = [[0.02]\n[0.88]\n[0.1]]", fillcolor="#e58139"] ;
14 -> 15 ;
16 [label="SMLV <= -0.0\nsquared_error = 0.13\nsamples = 2\nvalue = [[0.01]\n[0.48]\n[0.52]]", fillcolor="#fcf0e7"] ;
14 -> 16 ;
17 [label="squared_error = 0.0\nsamples = 1\nvalue = [[0.01]\n[0.04]\n[0.95]]", fillcolor="#e58139"] ;
16 -> 17 ;
18 [label="squared_error = 0.0\nsamples = 1\nvalue = [[0.0]\n[0.91]\n[0.08]]", fillcolor="#e58139"] ;
16 -> 18 ;
19 [label="LNG <= 0.0\nsquared_error = 0.06\nsamples = 4\nvalue = [[0.67]\n[0.21]\n[0.12]]", fillcolor="#efb488"] ;
9 -> 19 ;
20 [label="LNG <= -0.01\nsquared_error = 0.01\nsamples = 3\nvalue = [[0.81]\n[0.18]\n[0.01]]", fillcolor="#e78a47"] ;
19 -> 20 ;
21 [label="squared_error = 0.0\nsamples = 1\nvalue = [[0.67]\n[0.33]\n[0.0]]", fillcolor="#e58139"] ;
20 -> 21 ;
22 [label="LNG <= 0.0\nsquared_error = 0.0\nsamples = 2\nvalue = [[0.9]\n[0.07]\n[0.02]]", fillcolor="#e5823a"] ;
20 -> 22 ;
23 [label="squared_error = 0.0\nsamples = 1\nvalue = [[0.94]\n[0.02]\n[0.04]]", fillcolor="#e58139"] ;
22 -> 23 ;
24 [label="squared_error = -0.0\nsamples = 1\nvalue = [[0.89]\n[0.1]\n[0.01]]", fillcolor="#e58139"] ;
22 -> 24 ;
25 [label="squared_error = -0.0\nsamples = 1\nvalue = [[0.0]\n[0.38]\n[0.62]]", fillcolor="#e58139"] ;
19 -> 25 ;
26 [label="SPY <= 0.0\nsquared_error = 0.01\nsamples = 6\nvalue = [[0.13]\n[0.86]\n[0.01]]", fillcolor="#e68844"] ;
8 -> 26 ;
27 [label="SMLV <= 0.0\nsquared_error = 0.0\nsamples = 4\nvalue = [[0.06]\n[0.92]\n[0.02]]", fillcolor="#e5823b"] ;
26 -> 27 ;
28 [label="squared_error = 0.0\nsamples = 1\nvalue = [[0.13]\n[0.86]\n[0.01]]", fillcolor="#e58139"] ;
27 -> 28 ;
29 [label="LNG <= 0.01\nsquared_error = 0.0\nsamples = 3\nvalue = [[0.05]\n[0.93]\n[0.02]]", fillcolor="#e5823a"] ;
27 -> 29 ;
30 [label="SPY <= 0.0\nsquared_error = 0.0\nsamples = 2\nvalue = [[0.01]\n[0.95]\n[0.03]]", fillcolor="#e58139"] ;
29 -> 30 ;
31 [label="squared_error = 0.0\nsamples = 1\nvalue = [[0.02]\n[0.96]\n[0.02]]", fillcolor="#e58139"] ;
30 -> 31 ;
32 [label="squared_error = -0.0\nsamples = 1\nvalue = [[0.01]\n[0.95]\n[0.04]]", fillcolor="#e58139"] ;
30 -> 32 ;
33 [label="squared_error = -0.0\nsamples = 1\nvalue = [[0.08]\n[0.92]\n[0.0]]", fillcolor="#e58139"] ;
29 -> 33 ;
34 [label="SPY <= 0.0\nsquared_error = 0.0\nsamples = 2\nvalue = [[0.3]\n[0.7]\n[0.01]]", fillcolor="#e5823b"] ;
26 -> 34 ;
35 [label="squared_error = -0.0\nsamples = 1\nvalue = [[0.25]\n[0.74]\n[0.01]]", fillcolor="#e58139"] ;
34 -> 35 ;
36 [label="squared_error = -0.0\nsamples = 1\nvalue = [[0.34]\n[0.65]\n[0.0]]", fillcolor="#e58139"] ;
34 -> 36 ;
37 [label="SMLV <= 0.0\nsquared_error = 0.14\nsamples = 15\nvalue = [[0.58]\n[0.24]\n[0.18]]", fillcolor="#fefbf8"] ;
1 -> 37 ;
38 [label="SMLV <= 0.0\nsquared_error = 0.12\nsamples = 14\nvalue = [[0.67]\n[0.14]\n[0.19]]", fillcolor="#fae9dc"] ;
37 -> 38 ;
39 [label="SMLV <= 0.0\nsquared_error = 0.14\nsamples = 4\nvalue = [[0.36]\n[0.27]\n[0.37]]", fillcolor="#fefaf8"] ;
38 -> 39 ;
40 [label="squared_error = -0.0\nsamples = 1\nvalue = [[0.92]\n[0.07]\n[0.0]]", fillcolor="#e58139"] ;
39 -> 40 ;
41 [label="SPY <= 0.0\nsquared_error = 0.08\nsamples = 3\nvalue = [[0.07]\n[0.37]\n[0.56]]", fillcolor="#f4caab"] ;
39 -> 41 ;
42 [label="LNG <= 0.0\nsquared_error = 0.0\nsamples = 2\nvalue = [[0.03]\n[0.04]\n[0.93]]", fillcolor="#e58139"] ;
41 -> 42 ;
43 [label="squared_error = 0.0\nsamples = 1\nvalue = [[0.03]\n[0.05]\n[0.92]]", fillcolor="#e58139"] ;
42 -> 43 ;
44 [label="squared_error = -0.0\nsamples = 1\nvalue = [[0.04]\n[0.03]\n[0.93]]", fillcolor="#e58139"] ;
42 -> 44 ;
45 [label="squared_error = 0.0\nsamples = 1\nvalue = [[0.11]\n[0.7]\n[0.19]]", fillcolor="#e58139"] ;
41 -> 45 ;
46 [label="LNG <= -0.0\nsquared_error = 0.08\nsamples = 10\nvalue = [[0.81]\n[0.09]\n[0.1]]", fillcolor="#f3c4a2"] ;
38 -> 46 ;
47 [label="squared_error = 0.0\nsamples = 1\nvalue = [[0.01]\n[0.0]\n[0.98]]", fillcolor="#e58139"] ;
46 -> 47 ;
48 [label="LNG <= -0.0\nsquared_error = 0.04\nsamples = 9\nvalue = [[0.88]\n[0.09]\n[0.03]]", fillcolor="#eca470"] ;
46 -> 48 ;
49 [label="LNG <= -0.0\nsquared_error = 0.12\nsamples = 2\nvalue = [[0.48]\n[0.45]\n[0.07]]", fillcolor="#fcefe5"] ;
48 -> 49 ;
50 [label="squared_error = -0.0\nsamples = 1\nvalue = [[0.94]\n[0.05]\n[0.0]]", fillcolor="#e58139"] ;
49 -> 50 ;
51 [label="squared_error = 0.0\nsamples = 1\nvalue = [[0.02]\n[0.85]\n[0.13]]", fillcolor="#e58139"] ;
49 -> 51 ;
52 [label="SPY <= 0.0\nsquared_error = 0.0\nsamples = 7\nvalue = [[0.96]\n[0.02]\n[0.02]]", fillcolor="#e58139"] ;
48 -> 52 ;
53 [label="SMLV <= 0.0\nsquared_error = 0.0\nsamples = 2\nvalue = [[0.93]\n[0.01]\n[0.06]]", fillcolor="#e58139"] ;
52 -> 53 ;
54 [label="squared_error = 0.0\nsamples = 1\nvalue = [[0.92]\n[0.02]\n[0.07]]", fillcolor="#e58139"] ;
53 -> 54 ;
55 [label="squared_error = -0.0\nsamples = 1\nvalue = [[0.95]\n[0.01]\n[0.05]]", fillcolor="#e58139"] ;
53 -> 55 ;
56 [label="LNG <= 0.0\nsquared_error = 0.0\nsamples = 5\nvalue = [[0.96]\n[0.02]\n[0.01]]", fillcolor="#e58139"] ;
52 -> 56 ;
57 [label="LNG <= 0.0\nsquared_error = 0.0\nsamples = 3\nvalue = [[0.97]\n[0.02]\n[0.01]]", fillcolor="#e58139"] ;
56 -> 57 ;
58 [label="squared_error = -0.0\nsamples = 1\nvalue = [[0.95]\n[0.01]\n[0.03]]", fillcolor="#e58139"] ;
57 -> 58 ;
59 [label="SMLV <= 0.0\nsquared_error = 0.0\nsamples = 2\nvalue = [[0.98]\n[0.02]\n[0.0]]", fillcolor="#e58139"] ;
57 -> 59 ;
60 [label="squared_error = 0.0\nsamples = 1\nvalue = [[0.97]\n[0.02]\n[0.01]]", fillcolor="#e58139"] ;
59 -> 60 ;
61 [label="squared_error = 0.0\nsamples = 1\nvalue = [[0.98]\n[0.02]\n[0.0]]", fillcolor="#e58139"] ;
59 -> 61 ;
62 [label="SMLV <= 0.0\nsquared_error = 0.0\nsamples = 2\nvalue = [[0.94]\n[0.04]\n[0.01]]", fillcolor="#e58139"] ;
56 -> 62 ;
63 [label="squared_error = 0.0\nsamples = 1\nvalue = [[0.95]\n[0.05]\n[0.01]]", fillcolor="#e58139"] ;
62 -> 63 ;
64 [label="squared_error = 0.0\nsamples = 1\nvalue = [[0.94]\n[0.04]\n[0.02]]", fillcolor="#e58139"] ;
62 -> 64 ;
65 [label="squared_error = -0.0\nsamples = 1\nvalue = [[0.02]\n[0.85]\n[0.13]]", fillcolor="#e58139"] ;
37 -> 65 ;
66 [label="LNG <= 0.03\nsquared_error = 0.01\nsamples = 4\nvalue = [[0.09]\n[0.85]\n[0.06]]", fillcolor="#e68742"] ;
0 -> 66 [labeldistance=2.5, labelangle=-45, headlabel="False"] ;
67 [label="SPY <= 0.0\nsquared_error = 0.0\nsamples = 3\nvalue = [[0.06]\n[0.87]\n[0.07]]", fillcolor="#e6843d"] ;
66 -> 67 ;
68 [label="LNG <= 0.01\nsquared_error = 0.0\nsamples = 2\nvalue = [[0.08]\n[0.9]\n[0.02]]", fillcolor="#e5823a"] ;
67 -> 68 ;
69 [label="squared_error = -0.0\nsamples = 1\nvalue = [[0.1]\n[0.89]\n[0.01]]", fillcolor="#e58139"] ;
68 -> 69 ;
70 [label="squared_error = -0.0\nsamples = 1\nvalue = [[0.01]\n[0.93]\n[0.07]]", fillcolor="#e58139"] ;
68 -> 70 ;
71 [label="squared_error = -0.0\nsamples = 1\nvalue = [[0.01]\n[0.82]\n[0.17]]", fillcolor="#e58139"] ;
67 -> 71 ;
72 [label="squared_error = 0.0\nsamples = 1\nvalue = [[0.3]\n[0.7]\n[0.0]]", fillcolor="#e58139"] ;
66 -> 72 ;
}